digraph Tree {
node [shape=box, style="rounded", color="black", fontname=helvetica] ;
edge [fontname=helvetica] ;
0 [label="name <= 0.0\nmse = 0.194\nsamples = 33091\nvalue = 3.7"] ;
1 [label="approx_cost(for two people) <= 0.001\nmse = 0.2\nsamples = 25195\nvalue = 3.73"] ;
0 -> 1 [labeldistance=2.5, labelangle=45, headlabel="True"] ;
2 [label="Dine-out <= 0.5\nmse = 0.167\nsamples = 18407\nvalue = 3.628"] ;
1 -> 2 ;
3 [label="Delivery <= 0.5\nmse = 0.167\nsamples = 12676\nvalue = 3.649"] ;
2 -> 3 ;
4 [label="book_table <= 0.5\nmse = 0.172\nsamples = 2410\nvalue = 3.779"] ;
3 -> 4 ;
5 [label="online_order <= 0.5\nmse = 0.17\nsamples = 2301\nvalue = 3.76"] ;
4 -> 5 ;
6 [label="(...)"] ;
5 -> 6 ;
1551 [label="(...)"] ;
5 -> 1551 ;
2648 [label="dish_liked <= -0.001\nmse = 0.055\nsamples = 109\nvalue = 4.172"] ;
4 -> 2648 ;
2649 [label="(...)"] ;
2648 -> 2649 ;
2652 [label="(...)"] ;
2648 -> 2652 ;
2755 [label="book_table <= 0.5\nmse = 0.161\nsamples = 10266\nvalue = 3.618"] ;
3 -> 2755 ;
2756 [label="approx_cost(for two people) <= -0.0\nmse = 0.159\nsamples = 10060\nvalue = 3.61"] ;
2755 -> 2756 ;
2757 [label="(...)"] ;
2756 -> 2757 ;
11940 [label="(...)"] ;
2756 -> 11940 ;
13721 [label="name <= -0.0\nmse = 0.084\nsamples = 206\nvalue = 4.008"] ;
2755 -> 13721 ;
13722 [label="(...)"] ;
13721 -> 13722 ;
13819 [label="(...)"] ;
13721 -> 13819 ;
13902 [label="online_order <= 0.5\nmse = 0.164\nsamples = 5731\nvalue = 3.58"] ;
2 -> 13902 ;
13903 [label="votes <= -0.0\nmse = 0.159\nsamples = 3481\nvalue = 3.633"] ;
13902 -> 13903 ;
13904 [label="address <= 0.001\nmse = 0.098\nsamples = 1655\nvalue = 3.483"] ;
13903 -> 13904 ;
13905 [label="(...)"] ;
13904 -> 13905 ;
16028 [label="(...)"] ;
13904 -> 16028 ;
16097 [label="book_table <= 0.5\nmse = 0.175\nsamples = 1826\nvalue = 3.769"] ;
13903 -> 16097 ;
16098 [label="(...)"] ;
16097 -> 16098 ;
18377 [label="(...)"] ;
16097 -> 18377 ;
18494 [label="dish_liked <= -0.001\nmse = 0.16\nsamples = 2250\nvalue = 3.499"] ;
13902 -> 18494 ;
18495 [label="name <= -0.0\nmse = 0.076\nsamples = 1416\nvalue = 3.387"] ;
18494 -> 18495 ;
18496 [label="(...)"] ;
18495 -> 18496 ;
19263 [label="(...)"] ;
18495 -> 19263 ;
20248 [label="name <= -0.0\nmse = 0.245\nsamples = 834\nvalue = 3.689"] ;
18494 -> 20248 ;
20249 [label="(...)"] ;
20248 -> 20249 ;
20626 [label="(...)"] ;
20248 -> 20626 ;
21211 [label="dish_liked <= -0.001\nmse = 0.184\nsamples = 6788\nvalue = 4.008"] ;
1 -> 21211 ;
21212 [label="book_table <= 0.5\nmse = 0.146\nsamples = 831\nvalue = 3.446"] ;
21211 -> 21212 ;
21213 [label="votes <= -0.0\nmse = 0.141\nsamples = 734\nvalue = 3.398"] ;
21212 -> 21213 ;
21214 [label="votes <= -0.0\nmse = 0.13\nsamples = 724\nvalue = 3.411"] ;
21213 -> 21214 ;
21215 [label="(...)"] ;
21214 -> 21215 ;
21720 [label="(...)"] ;
21214 -> 21720 ;
21775 [label="cuisines <= 0.001\nmse = 0.008\nsamples = 10\nvalue = 2.47"] ;
21213 -> 21775 ;
21776 [label="(...)"] ;
21775 -> 21776 ;
21785 [label="(...)"] ;
21775 -> 21785 ;
21786 [label="address <= -0.001\nmse = 0.036\nsamples = 97\nvalue = 3.813"] ;
21212 -> 21786 ;
21787 [label="name <= -0.001\nmse = 0.045\nsamples = 44\nvalue = 3.9"] ;
21786 -> 21787 ;
21788 [label="(...)"] ;
21787 -> 21788 ;
21793 [label="(...)"] ;
21787 -> 21793 ;
21804 [label="Delivery <= 0.5\nmse = 0.016\nsamples = 53\nvalue = 3.742"] ;
21786 -> 21804 ;
21805 [label="(...)"] ;
21804 -> 21805 ;
21830 [label="(...)"] ;
21804 -> 21830 ;
21835 [label="address <= 0.0\nmse = 0.139\nsamples = 5957\nvalue = 4.086"] ;
21211 -> 21835 ;
21836 [label="votes <= 0.0\nmse = 0.124\nsamples = 5225\nvalue = 4.098"] ;
21835 -> 21836 ;
21837 [label="book_table <= 0.5\nmse = 0.152\nsamples = 2229\nvalue = 3.908"] ;
21836 -> 21837 ;
21838 [label="(...)"] ;
21837 -> 21838 ;
22583 [label="(...)"] ;
21837 -> 22583 ;
23188 [label="Bannerghatta Road <= 0.5\nmse = 0.056\nsamples = 2996\nvalue = 4.239"] ;
21836 -> 23188 ;
23189 [label="(...)"] ;
23188 -> 23189 ;
25138 [label="(...)"] ;
23188 -> 25138 ;
25197 [label="Sarjapur Road <= 0.5\nmse = 0.239\nsamples = 732\nvalue = 4.005"] ;
21835 -> 25197 ;
25198 [label="address <= 0.0\nmse = 0.228\nsamples = 704\nvalue = 4.017"] ;
25197 -> 25198 ;
25199 [label="(...)"] ;
25198 -> 25199 ;
25204 [label="(...)"] ;
25198 -> 25204 ;
25779 [label="name <= 0.0\nmse = 0.441\nsamples = 28\nvalue = 3.714"] ;
25197 -> 25779 ;
25780 [label="(...)"] ;
25779 -> 25780 ;
25805 [label="(...)"] ;
25779 -> 25805 ;
25808 [label="dish_liked <= 0.0\nmse = 0.161\nsamples = 7896\nvalue = 3.603"] ;
0 -> 25808 [labeldistance=2.5, labelangle=-45, headlabel="False"] ;
25809 [label="dish_liked <= -0.001\nmse = 0.083\nsamples = 4667\nvalue = 3.427"] ;
25808 -> 25809 ;
25810 [label="Banashankari <= 0.5\nmse = 0.076\nsamples = 4399\nvalue = 3.418"] ;
25809 -> 25810 ;
25811 [label="online_order <= 0.5\nmse = 0.076\nsamples = 4273\nvalue = 3.417"] ;
25810 -> 25811 ;
25812 [label="cuisines <= -0.001\nmse = 0.087\nsamples = 2222\nvalue = 3.448"] ;
25811 -> 25812 ;
25813 [label="(...)"] ;
25812 -> 25813 ;
26636 [label="(...)"] ;
25812 -> 26636 ;
28409 [label="Desserts <= 0.5\nmse = 0.063\nsamples = 2051\nvalue = 3.382"] ;
25811 -> 28409 ;
28410 [label="(...)"] ;
28409 -> 28410 ;
30319 [label="(...)"] ;
28409 -> 30319 ;
30568 [label="cuisines <= -0.001\nmse = 0.077\nsamples = 126\nvalue = 3.472"] ;
25810 -> 30568 ;
30569 [label="votes <= -0.0\nmse = 0.059\nsamples = 35\nvalue = 3.617"] ;
30568 -> 30569 ;
30570 [label="(...)"] ;
30569 -> 30570 ;
30587 [label="(...)"] ;
30569 -> 30587 ;
30624 [label="votes <= -0.0\nmse = 0.073\nsamples = 91\nvalue = 3.416"] ;
30568 -> 30624 ;
30625 [label="(...)"] ;
30624 -> 30625 ;
30678 [label="(...)"] ;
30624 -> 30678 ;
30749 [label="name <= 0.001\nmse = 0.166\nsamples = 268\nvalue = 3.579"] ;
25809 -> 30749 ;
30750 [label="Basavanagudi <= 0.5\nmse = 0.106\nsamples = 141\nvalue = 3.723"] ;
30749 -> 30750 ;
30751 [label="address <= 0.0\nmse = 0.088\nsamples = 133\nvalue = 3.741"] ;
30750 -> 30751 ;
30752 [label="(...)"] ;
30751 -> 30752 ;
30787 [label="(...)"] ;
30751 -> 30787 ;
30824 [label="name <= 0.001\nmse = 0.306\nsamples = 8\nvalue = 3.412"] ;
30750 -> 30824 ;
30825 [label="(...)"] ;
30824 -> 30825 ;
30828 [label="(...)"] ;
30824 -> 30828 ;
30831 [label="votes <= -0.0\nmse = 0.185\nsamples = 127\nvalue = 3.419"] ;
30749 -> 30831 ;
30832 [label="name <= 0.001\nmse = 0.177\nsamples = 124\nvalue = 3.403"] ;
30831 -> 30832 ;
30833 [label="(...)"] ;
30832 -> 30833 ;
30944 [label="(...)"] ;
30832 -> 30944 ;
30969 [label="address <= -0.0\nmse = 0.056\nsamples = 3\nvalue = 4.067"] ;
30831 -> 30969 ;
30970 [label="(...)"] ;
30969 -> 30970 ;
30971 [label="(...)"] ;
30969 -> 30971 ;
30972 [label="dish_liked <= 0.001\nmse = 0.164\nsamples = 3229\nvalue = 3.857"] ;
25808 -> 30972 ;
30973 [label="approx_cost(for two people) <= 0.002\nmse = 0.247\nsamples = 602\nvalue = 3.741"] ;
30972 -> 30973 ;
30974 [label="cuisines <= 0.001\nmse = 0.272\nsamples = 488\nvalue = 3.676"] ;
30973 -> 30974 ;
30975 [label="approx_cost(for two people) <= 0.002\nmse = 0.315\nsamples = 299\nvalue = 3.602"] ;
30974 -> 30975 ;
30976 [label="(...)"] ;
30975 -> 30976 ;
31201 [label="(...)"] ;
30975 -> 31201 ;
31204 [label="approx_cost(for two people) <= -0.001\nmse = 0.183\nsamples = 189\nvalue = 3.794"] ;
30974 -> 31204 ;
31205 [label="(...)"] ;
31204 -> 31205 ;
31234 [label="(...)"] ;
31204 -> 31234 ;
31353 [label="book_table <= 0.5\nmse = 0.044\nsamples = 114\nvalue = 4.018"] ;
30973 -> 31353 ;
31354 [label="address <= 0.0\nmse = 0.004\nsamples = 29\nvalue = 3.803"] ;
31353 -> 31354 ;
31355 [label="(...)"] ;
31354 -> 31355 ;
31356 [label="(...)"] ;
31354 -> 31356 ;
31361 [label="name <= 0.001\nmse = 0.037\nsamples = 85\nvalue = 4.092"] ;
31353 -> 31361 ;
31362 [label="(...)"] ;
31361 -> 31362 ;
31397 [label="(...)"] ;
31361 -> 31397 ;
31406 [label="Pubs and bars <= 0.5\nmse = 0.141\nsamples = 2627\nvalue = 3.883"] ;
30972 -> 31406 ;
31407 [label="cuisines <= -0.001\nmse = 0.141\nsamples = 2576\nvalue = 3.878"] ;
31406 -> 31407 ;
31408 [label="Delivery <= 0.5\nmse = 0.149\nsamples = 1062\nvalue = 3.808"] ;
31407 -> 31408 ;
31409 [label="(...)"] ;
31408 -> 31409 ;
32092 [label="(...)"] ;
31408 -> 32092 ;
32755 [label="votes <= -0.0\nmse = 0.13\nsamples = 1514\nvalue = 3.927"] ;
31407 -> 32755 ;
32756 [label="(...)"] ;
32755 -> 32756 ;
33597 [label="(...)"] ;
32755 -> 33597 ;
34238 [label="address <= 0.0\nmse = 0.04\nsamples = 51\nvalue = 4.153"] ;
31406 -> 34238 ;
34239 [label="votes <= -0.0\nmse = 0.008\nsamples = 8\nvalue = 4.0"] ;
34238 -> 34239 ;
34240 [label="(...)"] ;
34239 -> 34240 ;
34241 [label="(...)"] ;
34239 -> 34241 ;
34248 [label="Rajajinagar <= 0.5\nmse = 0.041\nsamples = 43\nvalue = 4.181"] ;
34238 -> 34248 ;
34249 [label="(...)"] ;
34248 -> 34249 ;
34310 [label="(...)"] ;
34248 -> 34310 ;
}