digraph Tree {
node [shape=box, style="rounded", color="black", fontname=helvetica] ;
edge [fontname=helvetica] ;
0 [label="Drinks & nightlife <= 0.5\nmse = 0.194\nsamples = 33093\nvalue = 3.7"] ;
1 [label="approx_cost(for two people) <= 0.001\nmse = 0.192\nsamples = 32243\nvalue = 3.692"] ;
0 -> 1 [labeldistance=2.5, labelangle=45, headlabel="True"] ;
2 [label="book_table <= 0.5\nmse = 0.161\nsamples = 24858\nvalue = 3.605"] ;
1 -> 2 ;
3 [label="votes <= -0.0\nmse = 0.159\nsamples = 24235\nvalue = 3.595"] ;
2 -> 3 ;
4 [label="name <= -0.0\nmse = 0.091\nsamples = 13937\nvalue = 3.452"] ;
3 -> 4 ;
5 [label="approx_cost(for two people) <= -0.001\nmse = 0.094\nsamples = 6257\nvalue = 3.476"] ;
4 -> 5 ;
6 [label="(...)"] ;
5 -> 6 ;
4027 [label="(...)"] ;
5 -> 4027 ;
5754 [label="address <= -0.0\nmse = 0.087\nsamples = 7680\nvalue = 3.433"] ;
4 -> 5754 ;
5755 [label="(...)"] ;
5754 -> 5755 ;
6036 [label="(...)"] ;
5754 -> 6036 ;
14961 [label="cuisines <= -0.002\nmse = 0.186\nsamples = 10298\nvalue = 3.789"] ;
3 -> 14961 ;
14962 [label="dish_liked <= -0.001\nmse = 0.248\nsamples = 1202\nvalue = 3.66"] ;
14961 -> 14962 ;
14963 [label="(...)"] ;
14962 -> 14963 ;
15118 [label="(...)"] ;
14962 -> 15118 ;
16101 [label="cuisines <= -0.002\nmse = 0.175\nsamples = 9096\nvalue = 3.806"] ;
14961 -> 16101 ;
16102 [label="(...)"] ;
16101 -> 16102 ;
16183 [label="(...)"] ;
16101 -> 16183 ;
24378 [label="Delivery <= 0.5\nmse = 0.104\nsamples = 623\nvalue = 3.997"] ;
2 -> 24378 ;
24379 [label="votes <= -0.0\nmse = 0.095\nsamples = 340\nvalue = 4.034"] ;
24378 -> 24379 ;
24380 [label="Old Airport Road <= 0.5\nmse = 0.049\nsamples = 51\nvalue = 3.643"] ;
24379 -> 24380 ;
24381 [label="(...)"] ;
24380 -> 24381 ;
24424 [label="(...)"] ;
24380 -> 24424 ;
24427 [label="dish_liked <= -0.001\nmse = 0.071\nsamples = 289\nvalue = 4.103"] ;
24379 -> 24427 ;
24428 [label="(...)"] ;
24427 -> 24428 ;
24433 [label="(...)"] ;
24427 -> 24433 ;
24684 [label="dish_liked <= -0.001\nmse = 0.111\nsamples = 283\nvalue = 3.952"] ;
24378 -> 24684 ;
24685 [label="cuisines <= 0.005\nmse = 0.13\nsamples = 42\nvalue = 3.502"] ;
24684 -> 24685 ;
24686 [label="(...)"] ;
24685 -> 24686 ;
24739 [label="(...)"] ;
24685 -> 24739 ;
24742 [label="online_order <= 0.5\nmse = 0.066\nsamples = 241\nvalue = 4.03"] ;
24684 -> 24742 ;
24743 [label="(...)"] ;
24742 -> 24743 ;
24944 [label="(...)"] ;
24742 -> 24944 ;
24961 [label="votes <= -0.0\nmse = 0.184\nsamples = 7385\nvalue = 3.982"] ;
1 -> 24961 ;
24962 [label="cuisines <= -0.001\nmse = 0.167\nsamples = 2064\nvalue = 3.612"] ;
24961 -> 24962 ;
24963 [label="votes <= -0.0\nmse = 0.174\nsamples = 722\nvalue = 3.509"] ;
24962 -> 24963 ;
24964 [label="cuisines <= -0.001\nmse = 0.132\nsamples = 485\nvalue = 3.415"] ;
24963 -> 24964 ;
24965 [label="(...)"] ;
24964 -> 24965 ;
25282 [label="(...)"] ;
24964 -> 25282 ;
25353 [label="approx_cost(for two people) <= 0.003\nmse = 0.204\nsamples = 237\nvalue = 3.701"] ;
24963 -> 25353 ;
25354 [label="(...)"] ;
25353 -> 25354 ;
25479 [label="(...)"] ;
25353 -> 25479 ;
25536 [label="votes <= -0.0\nmse = 0.154\nsamples = 1342\nvalue = 3.667"] ;
24962 -> 25536 ;
25537 [label="book_table <= 0.5\nmse = 0.118\nsamples = 558\nvalue = 3.522"] ;
25536 -> 25537 ;
25538 [label="(...)"] ;
25537 -> 25538 ;
25941 [label="(...)"] ;
25537 -> 25941 ;
25978 [label="approx_cost(for two people) <= 0.001\nmse = 0.155\nsamples = 784\nvalue = 3.771"] ;
25536 -> 25978 ;
25979 [label="(...)"] ;
25978 -> 25979 ;
26242 [label="(...)"] ;
25978 -> 26242 ;
26569 [label="address <= 0.001\nmse = 0.117\nsamples = 5321\nvalue = 4.126"] ;
24961 -> 26569 ;
26570 [label="approx_cost(for two people) <= 0.002\nmse = 0.112\nsamples = 5048\nvalue = 4.134"] ;
26569 -> 26570 ;
26571 [label="votes <= 0.0\nmse = 0.131\nsamples = 2380\nvalue = 4.03"] ;
26570 -> 26571 ;
26572 [label="(...)"] ;
26571 -> 26572 ;
27417 [label="(...)"] ;
26571 -> 27417 ;
28220 [label="book_table <= 0.5\nmse = 0.077\nsamples = 2668\nvalue = 4.226"] ;
26570 -> 28220 ;
28221 [label="(...)"] ;
28220 -> 28221 ;
28554 [label="(...)"] ;
28220 -> 28554 ;
30443 [label="address <= 0.001\nmse = 0.197\nsamples = 273\nvalue = 3.987"] ;
26569 -> 30443 ;
30444 [label="address <= 0.001\nmse = 0.147\nsamples = 24\nvalue = 3.7"] ;
30443 -> 30444 ;
30445 [label="(...)"] ;
30444 -> 30445 ;
30450 [label="(...)"] ;
30444 -> 30450 ;
30451 [label="Bellandur <= 0.5\nmse = 0.193\nsamples = 249\nvalue = 4.015"] ;
30443 -> 30451 ;
30452 [label="(...)"] ;
30451 -> 30452 ;
30725 [label="(...)"] ;
30451 -> 30725 ;
30740 [label="Electronic City <= 0.5\nmse = 0.18\nsamples = 850\nvalue = 4.013"] ;
0 -> 30740 [labeldistance=2.5, labelangle=-45, headlabel="False"] ;
30741 [label="online_order <= 0.5\nmse = 0.177\nsamples = 835\nvalue = 4.02"] ;
30740 -> 30741 ;
30742 [label="name <= -0.001\nmse = 0.068\nsamples = 185\nvalue = 4.181"] ;
30741 -> 30742 ;
30743 [label="book_table <= 0.5\nmse = 0.084\nsamples = 22\nvalue = 3.982"] ;
30742 -> 30743 ;
30744 [label="BTM <= 0.5\nmse = 0.093\nsamples = 11\nvalue = 3.827"] ;
30743 -> 30744 ;
30745 [label="(...)"] ;
30744 -> 30745 ;
30756 [label="(...)"] ;
30744 -> 30756 ;
30757 [label="name <= -0.001\nmse = 0.028\nsamples = 11\nvalue = 4.136"] ;
30743 -> 30757 ;
30758 [label="(...)"] ;
30757 -> 30758 ;
30761 [label="(...)"] ;
30757 -> 30761 ;
30764 [label="cuisines <= -0.001\nmse = 0.059\nsamples = 163\nvalue = 4.207"] ;
30742 -> 30764 ;
30765 [label="votes <= 0.001\nmse = 0.079\nsamples = 22\nvalue = 3.959"] ;
30764 -> 30765 ;
30766 [label="(...)"] ;
30765 -> 30766 ;
30783 [label="(...)"] ;
30765 -> 30783 ;
30792 [label="name <= -0.001\nmse = 0.045\nsamples = 141\nvalue = 4.246"] ;
30764 -> 30792 ;
30793 [label="(...)"] ;
30792 -> 30793 ;
30796 [label="(...)"] ;
30792 -> 30796 ;
30909 [label="votes <= -0.0\nmse = 0.199\nsamples = 650\nvalue = 3.974"] ;
30741 -> 30909 ;
30910 [label="book_table <= 0.5\nmse = 0.128\nsamples = 181\nvalue = 3.531"] ;
30909 -> 30910 ;
30911 [label="cuisines <= -0.002\nmse = 0.124\nsamples = 152\nvalue = 3.483"] ;
30910 -> 30911 ;
30912 [label="(...)"] ;
30911 -> 30912 ;
30915 [label="(...)"] ;
30911 -> 30915 ;
31076 [label="Marathahalli <= 0.5\nmse = 0.07\nsamples = 29\nvalue = 3.786"] ;
30910 -> 31076 ;
31077 [label="(...)"] ;
31076 -> 31077 ;
31104 [label="(...)"] ;
31076 -> 31104 ;
31105 [label="cuisines <= -0.001\nmse = 0.121\nsamples = 469\nvalue = 4.145"] ;
30909 -> 31105 ;
31106 [label="Koramangala 5th Block <= 0.5\nmse = 0.258\nsamples = 78\nvalue = 3.858"] ;
31105 -> 31106 ;
31107 [label="(...)"] ;
31106 -> 31107 ;
31190 [label="(...)"] ;
31106 -> 31190 ;
31199 [label="cuisines <= -0.001\nmse = 0.074\nsamples = 391\nvalue = 4.202"] ;
31105 -> 31199 ;
31200 [label="(...)"] ;
31199 -> 31200 ;
31221 [label="(...)"] ;
31199 -> 31221 ;
31648 [label="book_table <= 0.5\nmse = 0.221\nsamples = 15\nvalue = 3.633"] ;
30740 -> 31648 ;
31649 [label="votes <= -0.0\nmse = 0.137\nsamples = 7\nvalue = 3.3"] ;
31648 -> 31649 ;
31650 [label="name <= 0.001\nmse = 0.036\nsamples = 6\nvalue = 3.167"] ;
31649 -> 31650 ;
31651 [label="approx_cost(for two people) <= 0.004\nmse = 0.036\nsamples = 5\nvalue = 3.2"] ;
31650 -> 31651 ;
31652 [label="(...)"] ;
31651 -> 31652 ;
31657 [label="(...)"] ;
31651 -> 31657 ;
31658 [label="mse = 0.0\nsamples = 1\nvalue = 3.0"] ;
31650 -> 31658 ;
31659 [label="mse = 0.0\nsamples = 1\nvalue = 4.1"] ;
31649 -> 31659 ;
31660 [label="cuisines <= 0.003\nmse = 0.112\nsamples = 8\nvalue = 3.925"] ;
31648 -> 31660 ;
31661 [label="name <= 0.0\nmse = 0.068\nsamples = 6\nvalue = 3.783"] ;
31660 -> 31661 ;
31662 [label="dish_liked <= -0.0\nmse = 0.009\nsamples = 3\nvalue = 3.533"] ;
31661 -> 31662 ;
31663 [label="(...)"] ;
31662 -> 31663 ;
31664 [label="(...)"] ;
31662 -> 31664 ;
31667 [label="approx_cost(for two people) <= 0.007\nmse = 0.002\nsamples = 3\nvalue = 4.033"] ;
31661 -> 31667 ;
31668 [label="(...)"] ;
31667 -> 31668 ;
31671 [label="(...)"] ;
31667 -> 31671 ;
31672 [label="dish_liked <= 0.001\nmse = 0.003\nsamples = 2\nvalue = 4.35"] ;
31660 -> 31672 ;
31673 [label="mse = 0.0\nsamples = 1\nvalue = 4.4"] ;
31672 -> 31673 ;
31674 [label="mse = 0.0\nsamples = 1\nvalue = 4.3"] ;
31672 -> 31674 ;
}