digraph Tree {
node [shape=box, style="rounded", color="black", fontname=helvetica] ;
edge [fontname=helvetica] ;
0 [label="address <= 0.0\nmse = 0.195\nsamples = 33136\nvalue = 3.7"] ;
1 [label="votes <= -0.0\nmse = 0.195\nsamples = 25051\nvalue = 3.733"] ;
0 -> 1 [labeldistance=2.5, labelangle=45, headlabel="True"] ;
2 [label="votes <= -0.0\nmse = 0.125\nsamples = 15104\nvalue = 3.536"] ;
1 -> 2 ;
3 [label="votes <= -0.0\nmse = 0.063\nsamples = 6752\nvalue = 3.394"] ;
2 -> 3 ;
4 [label="approx_cost(for two people) <= 0.0\nmse = 0.026\nsamples = 2684\nvalue = 3.303"] ;
3 -> 4 ;
5 [label="online_order <= 0.5\nmse = 0.026\nsamples = 2482\nvalue = 3.298"] ;
4 -> 5 ;
6 [label="(...)"] ;
5 -> 6 ;
1001 [label="(...)"] ;
5 -> 1001 ;
2050 [label="votes <= -0.0\nmse = 0.02\nsamples = 202\nvalue = 3.367"] ;
4 -> 2050 ;
2051 [label="(...)"] ;
2050 -> 2051 ;
2090 [label="(...)"] ;
2050 -> 2090 ;
2173 [label="votes <= -0.0\nmse = 0.078\nsamples = 4068\nvalue = 3.454"] ;
3 -> 2173 ;
2174 [label="approx_cost(for two people) <= -0.001\nmse = 0.045\nsamples = 1304\nvalue = 3.394"] ;
2173 -> 2174 ;
2175 [label="(...)"] ;
2174 -> 2175 ;
2834 [label="(...)"] ;
2174 -> 2834 ;
3107 [label="approx_cost(for two people) <= 0.004\nmse = 0.091\nsamples = 2764\nvalue = 3.483"] ;
2173 -> 3107 ;
3108 [label="(...)"] ;
3107 -> 3108 ;
5975 [label="(...)"] ;
3107 -> 5975 ;
6000 [label="dish_liked <= -0.001\nmse = 0.147\nsamples = 8352\nvalue = 3.65"] ;
2 -> 6000 ;
6001 [label="address <= -0.001\nmse = 0.117\nsamples = 3404\nvalue = 3.55"] ;
6000 -> 6001 ;
6002 [label="address <= -0.001\nmse = 0.157\nsamples = 341\nvalue = 3.44"] ;
6001 -> 6002 ;
6003 [label="(...)"] ;
6002 -> 6003 ;
6238 [label="(...)"] ;
6002 -> 6238 ;
6239 [label="votes <= -0.0\nmse = 0.111\nsamples = 3063\nvalue = 3.562"] ;
6001 -> 6239 ;
6240 [label="(...)"] ;
6239 -> 6240 ;
8669 [label="(...)"] ;
6239 -> 8669 ;
8946 [label="cuisines <= -0.001\nmse = 0.156\nsamples = 4948\nvalue = 3.719"] ;
6000 -> 8946 ;
8947 [label="dish_liked <= -0.001\nmse = 0.173\nsamples = 809\nvalue = 3.585"] ;
8946 -> 8947 ;
8948 [label="(...)"] ;
8947 -> 8948 ;
8961 [label="(...)"] ;
8947 -> 8961 ;
9504 [label="approx_cost(for two people) <= 0.001\nmse = 0.148\nsamples = 4139\nvalue = 3.745"] ;
8946 -> 9504 ;
9505 [label="(...)"] ;
9504 -> 9505 ;
12620 [label="(...)"] ;
9504 -> 12620 ;
12975 [label="book_table <= 0.5\nmse = 0.153\nsamples = 9947\nvalue = 4.032"] ;
1 -> 12975 ;
12976 [label="votes <= 0.002\nmse = 0.071\nsamples = 3759\nvalue = 4.197"] ;
12975 -> 12976 ;
12977 [label="cuisines <= -0.001\nmse = 0.064\nsamples = 3068\nvalue = 4.146"] ;
12976 -> 12977 ;
12978 [label="Brookefield <= 0.5\nmse = 0.01\nsamples = 94\nvalue = 4.384"] ;
12977 -> 12978 ;
12979 [label="(...)"] ;
12978 -> 12979 ;
13008 [label="(...)"] ;
12978 -> 13008 ;
13015 [label="approx_cost(for two people) <= 0.004\nmse = 0.064\nsamples = 2974\nvalue = 4.139"] ;
12977 -> 13015 ;
13016 [label="(...)"] ;
13015 -> 13016 ;
13965 [label="(...)"] ;
13015 -> 13965 ;
14684 [label="votes <= 0.004\nmse = 0.042\nsamples = 691\nvalue = 4.424"] ;
12976 -> 14684 ;
14685 [label="votes <= 0.002\nmse = 0.033\nsamples = 406\nvalue = 4.35"] ;
14684 -> 14685 ;
14686 [label="(...)"] ;
14685 -> 14686 ;
14715 [label="(...)"] ;
14685 -> 14715 ;
14834 [label="votes <= 0.012\nmse = 0.036\nsamples = 285\nvalue = 4.528"] ;
14684 -> 14834 ;
14835 [label="(...)"] ;
14834 -> 14835 ;
14960 [label="(...)"] ;
14834 -> 14960 ;
14965 [label="cuisines <= -0.001\nmse = 0.176\nsamples = 6188\nvalue = 3.932"] ;
12975 -> 14965 ;
14966 [label="dish_liked <= -0.001\nmse = 0.257\nsamples = 879\nvalue = 3.757"] ;
14965 -> 14966 ;
14967 [label="votes <= 0.0\nmse = 0.283\nsamples = 58\nvalue = 3.317"] ;
14966 -> 14967 ;
14968 [label="(...)"] ;
14967 -> 14968 ;
15007 [label="(...)"] ;
14967 -> 15007 ;
15010 [label="name <= -0.001\nmse = 0.24\nsamples = 821\nvalue = 3.788"] ;
14966 -> 15010 ;
15011 [label="(...)"] ;
15010 -> 15011 ;
15036 [label="(...)"] ;
15010 -> 15036 ;
15651 [label="approx_cost(for two people) <= 0.001\nmse = 0.157\nsamples = 5309\nvalue = 3.961"] ;
14965 -> 15651 ;
15652 [label="Desserts <= 0.5\nmse = 0.154\nsamples = 4551\nvalue = 3.934"] ;
15651 -> 15652 ;
15653 [label="(...)"] ;
15652 -> 15653 ;
19290 [label="(...)"] ;
15652 -> 19290 ;
19693 [label="votes <= 0.0\nmse = 0.147\nsamples = 758\nvalue = 4.118"] ;
15651 -> 19693 ;
19694 [label="(...)"] ;
19693 -> 19694 ;
19815 [label="(...)"] ;
19693 -> 19815 ;
20130 [label="book_table <= 0.5\nmse = 0.18\nsamples = 8085\nvalue = 3.596"] ;
0 -> 20130 [labeldistance=2.5, labelangle=-45, headlabel="False"] ;
20131 [label="cuisines <= -0.001\nmse = 0.114\nsamples = 682\nvalue = 4.083"] ;
20130 -> 20131 ;
20132 [label="dish_liked <= 0.001\nmse = 0.155\nsamples = 98\nvalue = 3.817"] ;
20131 -> 20132 ;
20133 [label="address <= 0.0\nmse = 0.145\nsamples = 16\nvalue = 3.313"] ;
20132 -> 20133 ;
20134 [label="mse = 0.0\nsamples = 4\nvalue = 2.7"] ;
20133 -> 20134 ;
20135 [label="online_order <= 0.5\nmse = 0.026\nsamples = 12\nvalue = 3.517"] ;
20133 -> 20135 ;
20136 [label="(...)"] ;
20135 -> 20136 ;
20141 [label="(...)"] ;
20135 -> 20141 ;
20146 [label="Indiranagar <= 0.5\nmse = 0.097\nsamples = 82\nvalue = 3.916"] ;
20132 -> 20146 ;
20147 [label="address <= 0.001\nmse = 0.098\nsamples = 78\nvalue = 3.906"] ;
20146 -> 20147 ;
20148 [label="(...)"] ;
20147 -> 20148 ;
20205 [label="(...)"] ;
20147 -> 20205 ;
20214 [label="online_order <= 0.5\nmse = 0.06\nsamples = 4\nvalue = 4.1"] ;
20146 -> 20214 ;
20215 [label="(...)"] ;
20214 -> 20215 ;
20218 [label="(...)"] ;
20214 -> 20218 ;
20219 [label="approx_cost(for two people) <= 0.002\nmse = 0.093\nsamples = 584\nvalue = 4.128"] ;
20131 -> 20219 ;
20220 [label="cuisines <= -0.001\nmse = 0.087\nsamples = 286\nvalue = 4.009"] ;
20219 -> 20220 ;
20221 [label="Electronic City <= 0.5\nmse = 0.007\nsamples = 24\nvalue = 4.413"] ;
20220 -> 20221 ;
20222 [label="(...)"] ;
20221 -> 20222 ;
20231 [label="(...)"] ;
20221 -> 20231 ;
20232 [label="Electronic City <= 0.5\nmse = 0.078\nsamples = 262\nvalue = 3.972"] ;
20220 -> 20232 ;
20233 [label="(...)"] ;
20232 -> 20233 ;
20458 [label="(...)"] ;
20232 -> 20458 ;
20471 [label="dish_liked <= 0.001\nmse = 0.072\nsamples = 298\nvalue = 4.242"] ;
20219 -> 20471 ;
20472 [label="address <= 0.001\nmse = 0.019\nsamples = 8\nvalue = 3.787"] ;
20471 -> 20472 ;
20473 [label="(...)"] ;
20472 -> 20473 ;
20476 [label="(...)"] ;
20472 -> 20476 ;
20479 [label="votes <= 0.003\nmse = 0.068\nsamples = 290\nvalue = 4.254"] ;
20471 -> 20479 ;
20480 [label="(...)"] ;
20479 -> 20480 ;
20753 [label="(...)"] ;
20479 -> 20753 ;
20778 [label="approx_cost(for two people) <= 0.0\nmse = 0.162\nsamples = 7403\nvalue = 3.552"] ;
20130 -> 20778 ;
20779 [label="votes <= -0.0\nmse = 0.148\nsamples = 6362\nvalue = 3.538"] ;
20778 -> 20779 ;
20780 [label="address <= 0.0\nmse = 0.1\nsamples = 4525\nvalue = 3.445"] ;
20779 -> 20780 ;
20781 [label="name <= 0.001\nmse = 0.24\nsamples = 17\nvalue = 2.971"] ;
20780 -> 20781 ;
20782 [label="(...)"] ;
20781 -> 20782 ;
20797 [label="(...)"] ;
20781 -> 20797 ;
20806 [label="votes <= -0.0\nmse = 0.098\nsamples = 4508\nvalue = 3.447"] ;
20780 -> 20806 ;
20807 [label="(...)"] ;
20806 -> 20807 ;
22686 [label="(...)"] ;
20806 -> 22686 ;
26025 [label="votes <= -0.0\nmse = 0.195\nsamples = 1837\nvalue = 3.765"] ;
20779 -> 26025 ;
26026 [label="Marathahalli <= 0.5\nmse = 0.199\nsamples = 1339\nvalue = 3.685"] ;
26025 -> 26026 ;
26027 [label="(...)"] ;
26026 -> 26027 ;
27416 [label="(...)"] ;
26026 -> 27416 ;
27521 [label="votes <= 0.0\nmse = 0.12\nsamples = 498\nvalue = 3.981"] ;
26025 -> 27521 ;
27522 [label="(...)"] ;
27521 -> 27522 ;
27859 [label="(...)"] ;
27521 -> 27859 ;
28046 [label="Dine-out <= 0.5\nmse = 0.237\nsamples = 1041\nvalue = 3.637"] ;
20778 -> 28046 ;
28047 [label="Whitefield <= 0.5\nmse = 0.235\nsamples = 607\nvalue = 3.661"] ;
28046 -> 28047 ;
28048 [label="votes <= 0.0\nmse = 0.235\nsamples = 569\nvalue = 3.646"] ;
28047 -> 28048 ;
28049 [label="(...)"] ;
28048 -> 28049 ;
28638 [label="(...)"] ;
28048 -> 28638 ;
28743 [label="votes <= 0.0\nmse = 0.182\nsamples = 38\nvalue = 3.889"] ;
28047 -> 28743 ;
28744 [label="(...)"] ;
28743 -> 28744 ;
28785 [label="(...)"] ;
28743 -> 28785 ;
28806 [label="Electronic City <= 0.5\nmse = 0.238\nsamples = 434\nvalue = 3.602"] ;
28046 -> 28806 ;
28807 [label="approx_cost(for two people) <= 0.005\nmse = 0.243\nsamples = 410\nvalue = 3.613"] ;
28806 -> 28807 ;
28808 [label="(...)"] ;
28807 -> 28808 ;
29375 [label="(...)"] ;
28807 -> 29375 ;
29394 [label="dish_liked <= 0.002\nmse = 0.124\nsamples = 24\nvalue = 3.425"] ;
28806 -> 29394 ;
29395 [label="(...)"] ;
29394 -> 29395 ;
29432 [label="(...)"] ;
29394 -> 29432 ;
}